digraph Tree {
node [shape=box, style="filled, rounded", color="black", fontname=helvetica] ;
edge [fontname=helvetica] ;
0 [label="petal length (cm) <= 2.6\ngini = 0.66\nsamples = 93\nvalue = [48, 44, 58]\nclass = virginica", fillcolor="#f3ecfc"] ;
1 [label="gini = 0.0\nsamples = 30\nvalue = [48, 0, 0]\nclass = setosa", fillcolor="#e58139"] ;
0 -> 1 [labeldistance=2.5, labelangle=45, headlabel="True"] ;
2 [label="petal width (cm) <= 1.75\ngini = 0.49\nsamples = 63\nvalue = [0, 44, 58]\nclass = virginica", fillcolor="#e1cff9"] ;
0 -> 2 [labeldistance=2.5, labelangle=-45, headlabel="False"] ;
3 [label="sepal length (cm) <= 5.95\ngini = 0.27\nsamples = 32\nvalue = [0, 42, 8]\nclass = versicolor", fillcolor="#5fea99"] ;
2 -> 3 ;
4 [label="gini = 0.0\nsamples = 13\nvalue = [0, 18, 0]\nclass = versicolor", fillcolor="#39e581"] ;
3 -> 4 ;
5 [label="petal length (cm) <= 4.95\ngini = 0.38\nsamples = 19\nvalue = [0, 24, 8]\nclass = versicolor", fillcolor="#7beeab"] ;
3 -> 5 ;
6 [label="gini = 0.0\nsamples = 13\nvalue = [0, 22, 0]\nclass = versicolor", fillcolor="#39e581"] ;
5 -> 6 ;
7 [label="sepal width (cm) <= 2.65\ngini = 0.32\nsamples = 6\nvalue = [0, 2, 8]\nclass = virginica", fillcolor="#a06aec"] ;
5 -> 7 ;
8 [label="gini = 0.0\nsamples = 2\nvalue = [0, 0, 5]\nclass = virginica", fillcolor="#8139e5"] ;
7 -> 8 ;
9 [label="sepal width (cm) <= 2.75\ngini = 0.48\nsamples = 4\nvalue = [0, 2, 3]\nclass = virginica", fillcolor="#d5bdf6"] ;
7 -> 9 ;
10 [label="gini = 0.0\nsamples = 1\nvalue = [0, 1, 0]\nclass = versicolor", fillcolor="#39e581"] ;
9 -> 10 ;
11 [label="petal width (cm) <= 1.65\ngini = 0.38\nsamples = 3\nvalue = [0, 1, 3]\nclass = virginica", fillcolor="#ab7bee"] ;
9 -> 11 ;
12 [label="gini = 0.0\nsamples = 2\nvalue = [0, 0, 3]\nclass = virginica", fillcolor="#8139e5"] ;
11 -> 12 ;
13 [label="gini = 0.0\nsamples = 1\nvalue = [0, 1, 0]\nclass = versicolor", fillcolor="#39e581"] ;
11 -> 13 ;
14 [label="petal length (cm) <= 4.85\ngini = 0.07\nsamples = 31\nvalue = [0, 2, 50]\nclass = virginica", fillcolor="#8641e6"] ;
2 -> 14 ;
15 [label="sepal width (cm) <= 3.0\ngini = 0.44\nsamples = 2\nvalue = [0, 2, 1]\nclass = versicolor", fillcolor="#9cf2c0"] ;
14 -> 15 ;
16 [label="gini = 0.0\nsamples = 1\nvalue = [0, 0, 1]\nclass = virginica", fillcolor="#8139e5"] ;
15 -> 16 ;
17 [label="gini = 0.0\nsamples = 1\nvalue = [0, 2, 0]\nclass = versicolor", fillcolor="#39e581"] ;
15 -> 17 ;
18 [label="gini = 0.0\nsamples = 29\nvalue = [0, 0, 49]\nclass = virginica", fillcolor="#8139e5"] ;
14 -> 18 ;
}